{"learner":{"attributes":{"best_iteration":"17","best_score":"0.997973"},"feature_names":["mean_radius","mean_texture","mean_perimeter","mean_area","mean_smoothness","mean_compactness","mean_concavity","mean_concave_points","mean_symmetry","mean_fractal_dimension","radius_error","texture_error","perimeter_error","area_error","smoothness_error","compactness_error","concavity_error","concave_points_error","symmetry_error","fractal_dimension_error","worst_radius","worst_texture","worst_perimeter","worst_area","worst_smoothness","worst_compactness","worst_concavity","worst_concave_points","worst_symmetry","worst_fractal_dimension"],"feature_types":["float","float","float","float","float","float","float","float","float","float","float","float","float","float","float","float","float","float","float","float","float","float","float","float","float","float","float","float","float","float"],"gradient_booster":{"model":{"gbtree_model_param":{"num_trees":"21","size_leaf_vector":"0"},"tree_info":[0,0,0,0,0,0,0,0,0,0,0,0,0,0,0,0,0,0,0,0,0],"trees":[{"base_weights":[4.695652E-1,1.8585858E0,-1.3642384E0,1.9162303E0,1.8181819E-1,9.0909094E-1,-1.6992481E0,1.9358289E0,5E-1,1.5294118E0,-6.666667E-1,-2E-1,-1.8974359E0,1.9562842E0,5E-1,-1.1428572E0,1.2E0,-5E-1,-1.9292035E0],"categories":[],"categories_nodes":[],"categories_segments":[],"categories_sizes":[],"default_left":[true,true,true,true,false,true,true,true,false,false,false,true,true,false,false,false,false,false,false],"id":0,"left_children":[1,3,5,7,-1,9,11,13,-1,-1,-1,15,17,-1,-1,-1,-1,-1,-1],"loss_changes":[2.2223077E2,4.436096E0,3.02947E1,3.5743713E-1,0E0,6.395722E0,9.500168E0,3.9491272E-1,0E0,0E0,0E0,7.971429E0,3.3390045E-1,0E0,0E0,0E0,0E0,0E0,0E0],"parents":[2147483647,0,0,1,1,2,2,3,3,5,5,6,6,7,7,11,11,12,12],"right_children":[2,4,6,8,-1,10,12,14,-1,-1,-1,16,18,-1,-1,-1,-1,-1,-1],"split_conditions":[1.0515E2,4.087E-1,2.1675E1,1.455E1,9.09091E-3,1.364E-1,5.012E-2,6.2555003E-1,2.5E-2,7.647059E-2,-3.3333335E-2,1.7175E-2,8.366E-2,9.781421E-2,2.5E-2,-5.714286E-2,6.0000002E-2,-2.5E-2,-9.646018E-2],"split_indices":[22,25,21,0,0,24,7,10,0,0,0,15,4,0,0,0,0,0,0],"split_type":[0,0,0,0,0,0,0,0,0,0,0,0,0,0,0,0,0,0,0],"sum_hessian":[8.525E1,4.85E1,3.675E1,4.675E1,1.75E0,4.5E0,3.225E1,4.575E1,1E0,3.25E0,1.25E0,4E0,2.825E1,4.475E1,1E0,2.5E0,1.5E0,1E0,2.725E1],"tree_param":{"num_deleted":"0","num_feature":"30","num_nodes":"19","size_leaf_vector":"0"}},{"base_weights":[4.4797975E-1,1.7727367E0,-1.3005549E0,1.8282146E0,1.6656834E-1,8.723086E-1,-1.621173E0,1.4726074E0,-6.482499E-1,-1.8955955E-1,-1.8107138E0,-1.1026947E0,1.1646392E0],"categories":[],"categories_nodes":[],"categories_segments":[],"categories_sizes":[],"default_left":[true,true,true,false,false,true,true,false,false,true,false,false,false],"id":1,"left_children":[1,3,5,-1,-1,7,9,-1,-1,11,-1,-1,-1],"loss_changes":[2.0167865E2,4.09671E0,2.7662952E1,0E0,0E0,5.9703097E0,8.660988E0,0E0,0E0,7.4628835E0,0E0,0E0,0E0],"parents":[2147483647,0,0,1,1,2,2,5,5,6,6,9,9],"right_children":[2,4,6,-1,-1,8,10,-1,-1,12,-1,-1,-1],"split_conditions":[1.0515E2,1.4559999E-1,2.1675E1,5.484644E-1,4.9970504E-2,1.364E-1,5.012E-2,4.4178224E-1,-1.9447498E-1,1.7175E-2,-5.4321414E-1,-3.3080843E-1,3.493918E-1],"split_indices":[22,27,21,0,0,24,7,0,0,15,0,0,0],"split_type":[0,0,0,0,0,0,0,0,0,0,0,0,0],"sum_hessian":[8.507086E1,4.8392784E1,3.6678074E1,4.6643448E1,1.749338E0,4.4949064E0,3.2183167E1,3.2452533E0,1.2496529E0,3.996611E0,2.8186556E1,2.49796E0,1.4986508E0],"tree_param":{"num_deleted":"0","num_feature":"30","num_nodes":"13","size_leaf_vector":"0"}},{"base_weights":[3.524206E-1,1.2532037E0,-1.2850235E0,1.3763553E0,-1.1183226E0,4.5000458E-1,-1.4592466E0,1.4767628E0,4.7623494E-1,-1.7484647E-1,8.69708E-1,1.4983164E0,3.5886452E-1,1.1118841E0,-1.0633241E0,1.3928412E-1,1.3696815E0],"categories":[],"categories_nodes":[],"categories_segments":[],"categories_sizes":[],"default_left":[true,true,true,true,false,true,false,true,true,false,false,false,false,true,false,false,false],"id":2,"left_children":[1,3,5,7,-1,9,-1,11,13,-1,-1,-1,-1,15,-1,-1,-1],"loss_changes":[1.17647705E2,1.6509346E1,9.24535E0,3.741127E0,0E0,1.0324535E0,0E0,5.1680756E-1,7.4561815E0,0E0,0E0,0E0,0E0,1.0695019E0,0E0,0E0,0E0],"parents":[2147483647,0,0,1,1,2,2,3,3,5,5,7,7,8,8,13,13],"right_children":[2,4,6,8,-1,10,-1,12,14,-1,-1,-1,-1,16,-1,-1,-1],"split_conditions":[1.6805E1,1.7175001E-1,2.316E-1,1.349E-1,-3.2431355E-1,9.213E-2,-4.231815E-1,5.497E-1,1.971E1,-5.0705474E-2,2.5221533E-1,4.3451175E-1,1.0407071E-1,1.4105E-1,-3.0836397E-1,4.0392395E-2,3.9720762E-1],"split_indices":[20,27,26,27,0,4,0,10,1,0,0,0,0,27,0,0,0],"split_type":[0,0,0,0,0,0,0,0,0,0,0,0,0,0,0,0,0],"sum_hessian":[7.767033E1,5.0257538E1,2.7412786E1,4.8175457E1,2.0820832E0,2.3570304E0,2.5055756E1,4.27645E1,5.4109573E0,1.1814709E0,1.1755595E0,4.162171E1,1.1427882E0,4.026356E0,1.3846011E0,1.1663433E0,2.860013E0],"tree_param":{"num_deleted":"0","num_feature":"30","num_nodes":"17","size_leaf_vector":"0"}},{"base_weights":[3.0190867E-1,1.0679351E0,-1.1207192E0,1.2647974E0,-6.701073E-2,2.2980641E-1,-1.2419171E0,1.301456E0,1.3113864E-1,6.345108E-1,-1.0717287E0,-8.168688E-2,-1.2948748E0,9.1360134E-1,-5.8753215E-2],"categories":[],"categories_nodes":[],"categories_segments":[],"categories_sizes":[],"default_left":[true,true,true,true,true,false,true,false,false,true,false,false,false,false,false],"id":3,"left_children":[1,3,5,7,9,-1,11,-1,-1,13,-1,-1,-1,-1,-1],"loss_changes":[7.496769E1,1.0030247E1,4.243326E0,1.4078674E0,5.9870067E0,0E0,1.2672043E0,0E0,0E0,1.0330567E0,0E0,0E0,0E0,0E0,0E0],"parents":[2147483647,0,0,1,1,2,2,3,3,4,4,6,6,9,9],"right_children":[2,4,6,8,10,-1,12,-1,-1,14,-1,-1,-1,-1,-1],"split_conditions":[1.13149994E2,1.358E-1,2.363E-1,4.2190002E1,1.971E1,6.434579E-2,8.3855005E2,3.644077E-1,3.671882E-2,1.08449996E-1,-3.0008402E-1,-2.2872325E-2,-3.6256495E-1,2.5580838E-1,-1.64509E-2],"split_indices":[22,27,26,13,1,0,23,0,0,4,0,0,0,0,0],"split_type":[0,0,0,0,0,0,0,0,0,0,0,0,0,0,0],"sum_hessian":[6.669391E1,4.351318E1,2.318073E1,3.698374E1,6.5294375E0,1.8351607E0,2.134557E1,3.5681904E1,1.3018396E0,4.061827E0,2.4676104E0,1.0427535E0,2.0302816E1,2.6693778E0,1.3924496E0],"tree_param":{"num_deleted":"0","num_feature":"30","num_nodes":"15","size_leaf_vector":"0"}},{"base_weights":[2.662275E-1,1.0030665E0,-9.145037E-1,1.0877329E0,-7.9971945E-1,5.912579E-1,-1.081925E0,1.1826053E0,3.56199E-1,-2.6503846E-1,-1.1949877E0,2.8848594E-1,1.2129651E0,1.0060612E0,-5.190837E-1,-9.049967E-1,7.364129E-1],"categories":[],"categories_nodes":[],"categories_segments":[],"categories_sizes":[],"default_left":[true,true,true,true,false,false,true,true,true,true,false,false,false,false,false,false,false],"id":4,"left_children":[1,3,5,7,-1,-1,9,11,13,15,-1,-1,-1,-1,-1,-1,-1],"loss_changes":[5.067014E1,6.3173065E0,6.3112183E0,1.9739647E0,0E0,0E0,1.5858536E0,4.6766663E-1,3.5898552E0,3.0950904E0,0E0,0E0,0E0,0E0,0E0,0E0,0E0],"parents":[2147483647,0,0,1,1,2,2,3,3,6,6,7,7,8,8,9,9],"right_children":[2,4,6,8,-1,-1,10,12,14,16,-1,-1,-1,-1,-1,-1,-1],"split_conditions":[1.1025E2,1.74E-1,1.991E1,1.5639999E1,-2.1592426E-1,1.5963964E-1,4.952E-2,1.9825E-1,2.6395E-1,9.8864995E-3,-3.2264668E-1,7.789121E-2,3.275006E-1,2.7163655E-1,-1.401526E-1,-2.4434912E-1,1.9883148E-1],"split_indices":[22,27,21,20,0,0,7,28,26,17,0,0,0,0,0,0,0],"split_type":[0,0,0,0,0,0,0,0,0,0,0,0,0,0,0,0,0],"sum_hessian":[5.6186577E1,3.4689163E1,2.1497412E1,3.351194E1,1.1772232E0,1.8977536E0,1.9599659E1,2.9118912E1,4.3930287E0,2.7894964E0,1.6810162E1,1.3011576E0,2.7817755E1,2.4354167E0,1.9576119E0,1.7606816E0,1.0288148E0],"tree_param":{"num_deleted":"0","num_feature":"30","num_nodes":"17","size_leaf_vector":"0"}},{"base_weights":[2.4224865E-1,8.253961E-1,-1.0150049E0,9.251349E-1,-7.957286E-1,1.6844362E-1,-1.1218532E0,1.0692698E0,1.2472792E-1,1.1411383E0,3.1985214E-1,8.854513E-1,-4.2834786E-1,-4.2363665E-1,8.100715E-1,2.7971926E-1,-7.73539E-1],"categories":[],"categories_nodes":[],"categories_segments":[],"categories_sizes":[],"default_left":[true,true,true,true,false,false,false,true,true,false,true,false,true,false,false,false,false],"id":5,"left_children":[1,3,5,7,-1,-1,-1,9,11,-1,13,-1,15,-1,-1,-1,-1],"loss_changes":[3.598936E1,6.121168E0,2.1666775E0,3.5395374E0,0E0,0E0,0E0,1.0809498E0,2.8996165E0,0E0,1.7058394E0,0E0,1.2288742E0,0E0,0E0,0E0,0E0],"parents":[2147483647,0,0,1,1,2,2,3,3,7,7,8,8,10,10,12,12],"right_children":[2,4,6,8,-1,-1,-1,10,12,-1,14,-1,16,-1,-1,-1,-1],"split_conditions":[1.1605E2,1.712E-1,6.492E-2,1.6224998E1,-2.0688944E-1,4.379534E-2,-2.9168183E-1,3.3004997E1,2.0645E1,2.9669595E-1,2.2E-2,2.3021734E-1,7.1724996E-2,-1.10145524E-1,2.1061859E-1,7.2727E-2,-2.0112014E-1],"split_indices":[22,27,29,20,0,0,0,13,21,0,18,0,6,0,0,0,0],"split_type":[0,0,0,0,0,0,0,0,0,0,0,0,0,0,0,0,0],"sum_hessian":[4.6945034E1,3.2304737E1,1.4640299E1,3.0836842E1,1.4678946E0,1.1646131E0,1.3475686E1,2.5846565E1,4.990277E0,2.3107838E1,2.7387264E0,1.8477906E0,3.1424863E0,1.1422145E0,1.5965117E0,1.0920687E0,2.0504177E0],"tree_param":{"num_deleted":"0","num_feature":"30","num_nodes":"17","size_leaf_vector":"0"}},{"base_weights":[2.2215427E-1,8.1279755E-1,-8.528987E-1,9.8105377E-1,-1.6453804E-1,2.2313932E-1,-1.0075382E0,1.045993E0,1.3258849E-1,4.8881614E-1,-8.07044E-1,-1.9528578E-1,-1.059518E0,1.0819876E0,1.651558E-1],"categories":[],"categories_nodes":[],"categories_segments":[],"categories_sizes":[],"default_left":[true,true,true,true,true,false,true,true,false,false,false,false,false,false,false],"id":6,"left_children":[1,3,5,7,9,-1,11,13,-1,-1,-1,-1,-1,-1,-1],"loss_changes":[2.6281042E1,4.522499E0,2.6837082E0,1.1158466E0,2.3890944E0,0E0,3.462515E-1,4.8727417E-1,0E0,0E0,0E0,0E0,0E0,0E0,0E0],"parents":[2147483647,0,0,1,1,2,2,3,3,4,4,6,6,7,7],"right_children":[2,4,6,8,10,-1,12,14,-1,-1,-1,-1,-1,-1,-1],"split_conditions":[1.424E-1,1.6805E1,7.2955E2,1.349E-1,1.9544998E1,5.578483E-2,9.377E-2,5.2975E-1,3.3147123E-2,1.22204036E-1,-2.01761E-1,-4.8821446E-2,-2.648795E-1,2.704969E-1,4.128895E-2],"split_indices":[27,20,23,27,1,0,6,10,0,0,0,0,0,0,0],"split_type":[0,0,0,0,0,0,0,0,0,0,0,0,0,0,0],"sum_hessian":[3.9297485E1,2.552034E1,1.3777145E1,2.1768852E1,3.7514875E0,1.6754922E0,1.2101654E1,2.0004925E1,1.763927E0,1.9786417E0,1.7728457E0,1.0139709E0,1.1087683E1,1.9000137E1,1.0047866E0],"tree_param":{"num_deleted":"0","num_feature":"30","num_nodes":"15","size_leaf_vector":"0"}},{"base_weights":[2.0203683E-1,8.385556E-1,-6.715702E-1,9.8059E-1,-9.719128E-2,5.4088145E-1,-8.8483477E-1,1.0483285E0,1.4195356E-1,4.627664E-1,-6.710789E-1,2.5118822E-2,-1.0460536E0],"categories":[],"categories_nodes":[],"categories_segments":[],"categories_sizes":[],"default_left":[true,true,true,true,true,false,true,false,false,false,false,false,false],"id":7,"left_children":[1,3,5,7,9,-1,11,-1,-1,-1,-1,-1,-1],"loss_changes":[1.964367E1,2.792673E0,4.3619375E0,8.5728836E-1,1.462402E0,0E0,1.9555855E0,0E0,0E0,0E0,0E0,0E0,0E0],"parents":[2147483647,0,0,1,1,2,2,3,3,4,4,6,6],"right_children":[2,4,6,8,10,-1,12,-1,-1,-1,-1,-1,-1],"split_conditions":[4.9884997E-2,1.683E1,2.0695E1,3.4405E1,1.9544998E1,1.2981154E-1,1.5780001E1,2.5159883E-1,3.4068853E-2,1.11063935E-1,-1.6105893E-1,6.028517E-3,-2.5105286E-1],"split_indices":[7,20,21,13,1,0,20,0,0,0,0,0,0],"split_type":[0,0,0,0,0,0,0,0,0,0,0,0,0],"sum_hessian":[3.3313335E1,1.9294958E1,1.4018375E1,1.6710583E1,2.5843756E0,1.8671362E0,1.2151239E1,1.5230355E1,1.4802276E0,1.4060671E0,1.1783086E0,1.9559028E0,1.0195336E1],"tree_param":{"num_deleted":"0","num_feature":"30","num_nodes":"13","size_leaf_vector":"0"}},{"base_weights":[1.8775286E-1,6.647349E-1,-8.3317274E-1,8.945409E-1,-4.8461232E-2,8.0417424E-2,-9.554882E-1,9.939206E-1,2.2566104E-1,5.435226E-1,-4.857061E-1,-4.123354E-1,6.967618E-1,4.1463777E-2,-7.111756E-1],"categories":[],"categories_nodes":[],"categories_segments":[],"categories_sizes":[],"default_left":[true,true,true,true,true,false,false,false,true,false,true,false,false,false,false],"id":8,"left_children":[1,3,5,7,9,-1,-1,-1,11,-1,13,-1,-1,-1,-1],"loss_changes":[1.4870875E1,3.418765E0,1.1726089E0,8.145046E-1,1.8086245E0,0E0,0E0,0E0,1.2837266E0,0E0,5.0022566E-1,0E0,0E0,0E0,0E0],"parents":[2147483647,0,0,1,1,2,2,3,3,4,4,8,8,10,10],"right_children":[2,4,6,8,10,-1,-1,-1,12,-1,14,-1,-1,-1,-1],"split_conditions":[1.5075E-1,8.111E2,1.6365E1,3.3004997E1,2.316E-1,1.8496009E-2,-2.197623E-1,2.2860175E-1,2.2E-2,1.2501019E-1,4.6469998E-3,-9.4837144E-2,1.6025521E-1,9.536669E-3,-1.6357039E-1],"split_indices":[27,23,1,13,26,0,0,0,18,0,14,0,0,0,0],"split_type":[0,0,0,0,0,0,0,0,0,0,0,0,0,0,0],"sum_hessian":[2.8400654E1,1.9594763E1,8.805891E0,1.4627289E1,4.9674745E0,1.080209E0,7.725682E0,1.231206E1,2.3152285E0,2.007061E0,2.9604132E0,1.0364027E0,1.2788259E0,1.131337E0,1.8290763E0],"tree_param":{"num_deleted":"0","num_feature":"30","num_nodes":"15","size_leaf_vector":"0"}},{"base_weights":[1.7275095E-1,6.0806507E-1,-8.4749407E-1,9.121355E-1,2.3479093E-2,-9.769627E-2,-9.427432E-1,1.16470754E-1,9.7665083E-1,5.6825715E-1,-4.1513023E-1,7.588312E-1,2.6177494E-2,2.5151956E-1,-7.2188646E-1],"categories":[],"categories_nodes":[],"categories_segments":[],"categories_sizes":[],"default_left":[true,true,true,true,true,false,false,false,false,true,true,false,false,false,false],"id":9,"left_children":[1,3,5,7,9,-1,-1,-1,-1,11,13,-1,-1,-1,-1],"loss_changes":[1.1905743E1,3.2775106E0,4.8551702E-1,5.1159E-1,1.9985161E0,0E0,0E0,0E0,0E0,3.636372E-1,1.1354315E0,0E0,0E0,0E0,0E0],"parents":[2147483647,0,0,1,1,2,2,3,3,4,4,9,9,10,10],"right_children":[2,4,6,8,10,-1,-1,-1,-1,12,14,-1,-1,-1,-1],"split_conditions":[1.1745E2,2.624E-1,1.172E-1,2.1540001E-1,2.567E1,-2.1493178E-2,-2.074035E-1,2.5623566E-2,2.1486318E-1,1.3715E-1,4.22E-2,1.6694286E-1,5.7590487E-3,5.5334304E-2,-1.5881503E-1],"split_indices":[22,26,24,28,21,0,0,0,0,24,7,0,0,0,0],"split_type":[0,0,0,0,0,0,0,0,0,0,0,0,0,0,0],"sum_hessian":[2.4646736E1,1.7558811E1,7.087924E0,1.1182147E1,6.3766656E0,1.0272374E0,6.0606866E0,1.0490898E0,1.0133057E1,2.712275E0,3.6643906E0,1.7109278E0,1.0013472E0,1.2115306E0,2.4528599E0],"tree_param":{"num_deleted":"0","num_feature":"30","num_nodes":"15","size_leaf_vector":"0"}},{"base_weights":[1.5988117E-1,6.3756365E-1,-6.672576E-1,8.885033E-1,-3.9627828E-2,2.7561027E-1,-8.822527E-1,1.244881E-1,9.590156E-1,3.794436E-1,-6.918165E-1,-5.5258006E-2,5.7042164E-1],"categories":[],"categories_nodes":[],"categories_segments":[],"categories_sizes":[],"default_left":[true,true,true,true,true,false,false,false,false,true,false,false,false],"id":10,"left_children":[1,3,5,7,9,-1,-1,-1,-1,11,-1,-1,-1],"loss_changes":[9.360387E0,2.558144E0,2.0204039E0,4.6648598E-1,1.6212503E0,0E0,0E0,0E0,0E0,3.363971E-1,0E0,0E0,0E0],"parents":[2147483647,0,0,1,1,2,2,3,3,4,4,9,9],"right_children":[2,4,6,8,10,-1,-1,-1,-1,12,-1,-1,-1],"split_conditions":[1.6805E1,1.349E-1,2.316E-1,2.1095E-1,2.7385E1,5.7878155E-2,-1.8527307E-1,2.61425E-2,2.0139328E-1,2.931E-2,-1.4528146E-1,-1.1604181E-2,1.1978854E-1],"split_indices":[20,27,26,28,21,0,0,0,0,15,0,0,0],"split_type":[0,0,0,0,0,0,0,0,0,0,0,0,0],"sum_hessian":[2.161389E1,1.3846541E1,7.7673483E0,9.875165E0,3.9713764E0,1.3899109E0,6.3774376E0,1.0680547E0,8.807111E0,2.6723967E0,1.2989798E0,1.0326198E0,1.6397768E0],"tree_param":{"num_deleted":"0","num_feature":"30","num_nodes":"13","size_leaf_vector":"0"}},{"base_weights":[1.4889616E-1,6.679976E-1,-5.343417E-1,8.45501E-1,-1.00690775E-1,1.722563E-1,-8.257792E-1,9.423236E-1,2.3072682E-2,4.3591553E-1,-6.0476094E-1,6.6104233E-1,-3.978544E-1,-2.6001468E-1,-8.8727343E-1],"categories":[],"categories_nodes":[],"categories_segments":[],"categories_sizes":[],"default_left":[true,true,true,true,true,true,true,false,false,false,false,false,false,false,false],"id":11,"left_children":[1,3,5,7,9,11,13,-1,-1,-1,-1,-1,-1,-1,-1],"loss_changes":[7.457656E0,1.6980882E0,2.036661E0,7.5146675E-1,1.1051728E0,1.2421389E0,1.8968582E-3,0E0,0E0,0E0,0E0,0E0,0E0,0E0,0E0],"parents":[2147483647,0,0,1,1,2,2,3,3,4,4,5,5,6,6],"right_children":[2,4,6,8,10,12,14,-1,-1,-1,-1,-1,-1,-1,-1],"split_conditions":[4.9884997E-2,3.4405E1,2.38E1,1.1205E2,6.893E-2,1.6365E1,1.4645E-1,1.8846473E-1,4.6145367E-3,8.718311E-2,-1.2095219E-1,1.3220847E-1,-7.957088E-2,-5.2002937E-2,-1.774547E-1],"split_indices":[7,13,21,22,29,20,27,0,0,0,0,0,0,0,0],"split_type":[0,0,0,0,0,0,0,0,0,0,0,0,0,0,0],"sum_hessian":[1.9020643E1,1.0821291E1,8.199352E0,8.710061E0,2.1112301E0,2.5137184E0,5.6856337E0,7.662223E0,1.0478381E0,1.0881027E0,1.0231276E0,1.2675138E0,1.2462046E0,1.0699611E0,4.615673E0],"tree_param":{"num_deleted":"0","num_feature":"30","num_nodes":"15","size_leaf_vector":"0"}},{"base_weights":[1.3529488E-1,5.0381076E-1,-7.370677E-1,7.984269E-1,1.20756E-2,-1.3309106E-1,-8.411375E-1,9.063776E-1,1.282482E-1,4.2640346E-1,-3.8749135E-1,-1.1970465E-3,6.353572E-1,6.527588E-2,-6.1125827E-1],"categories":[],"categories_nodes":[],"categories_segments":[],"categories_sizes":[],"default_left":[true,true,true,true,true,false,false,false,false,true,true,false,false,false,false],"id":12,"left_children":[1,3,5,7,9,-1,-1,-1,-1,11,13,-1,-1,-1,-1],"loss_changes":[6.1406145E0,1.9041889E0,2.485683E-1,4.8029757E-1,1.1527091E0,0E0,0E0,0E0,0E0,3.0493957E-1,4.006189E-1,0E0,0E0,0E0,0E0],"parents":[2147483647,0,0,1,1,2,2,3,3,4,4,9,9,10,10],"right_children":[2,4,6,8,10,-1,-1,-1,-1,12,14,-1,-1,-1,-1],"split_conditions":[1.1745E2,2.624E-1,4.4684997E-3,1.4315E-2,2.333E1,-2.5287302E-2,-1.5981613E-1,1.7221175E-1,2.4367157E-2,2.3140001E-1,1.34E-1,-2.2743882E-4,1.2071787E-1,1.2402416E-2,-1.1613907E-1],"split_indices":[22,26,14,17,13,0,0,0,0,10,24,0,0,0,0],"split_type":[0,0,0,0,0,0,0,0,0,0,0,0,0,0,0],"sum_hessian":[1.6946003E1,1.2210391E1,4.7356124E0,7.2455997E0,4.9647913E0,1.0309991E0,3.7046134E0,5.9368634E0,1.3087367E0,2.4044015E0,2.5603898E0,1.11564E0,1.2887615E0,1.0811304E0,1.4792593E0],"tree_param":{"num_deleted":"0","num_feature":"30","num_nodes":"15","size_leaf_vector":"0"}},{"base_weights":[1.2419036E-1,4.8494837E-1,-6.703636E-1,6.1895615E-1,-4.503234E-1,1.949534E-2,-8.2887506E-1,7.920976E-1,-1.2962698E-3,8.722467E-1,1.8434043E-1,-4.69365E-1,4.4541276E-1],"categories":[],"categories_nodes":[],"categories_segments":[],"categories_sizes":[],"default_left":[true,true,true,true,false,false,false,true,true,false,false,false,false],"id":13,"left_children":[1,3,5,7,-1,-1,-1,9,11,-1,-1,-1,-1],"loss_changes":[5.014091E0,1.7614985E0,6.2063074E-1,1.1575298E0,0E0,0E0,0E0,2.4938488E-1,9.0919715E-1,0E0,0E0,0E0,0E0],"parents":[2147483647,0,0,1,1,2,2,3,3,7,7,8,8],"right_children":[2,4,6,8,-1,-1,-1,10,12,-1,-1,-1,-1],"split_conditions":[9.5745E2,1.6029999E-1,6.7765E-2,3.3004997E1,-8.105822E-2,3.5091613E-3,-1.4919752E-1,1.1025E2,3.0445E-3,1.5700442E-1,3.318128E-2,-8.44857E-2,8.01743E-2],"split_indices":[23,27,29,13,0,0,0,22,19,0,0,0,0],"split_type":[0,0,0,0,0,0,0,0,0,0,0,0,0],"sum_hessian":[1.5358398E1,1.0830565E1,4.527833E0,9.769043E0,1.0615225E0,1.0098532E0,3.5179796E0,7.4205604E0,2.3484824E0,6.171494E0,1.249066E0,1.1220565E0,1.226426E0],"tree_param":{"num_deleted":"0","num_feature":"30","num_nodes":"13","size_leaf_vector":"0"}},{"base_weights":[1.10224E-1,5.645723E-1,-4.612909E-1,7.591681E-1,-9.020164E-2,1.6415611E-1,-7.4231964E-1,8.60918E-1,1.0656607E-1,5.786343E-1,-3.29873E-1],"categories":[],"categories_nodes":[],"categories_segments":[],"categories_sizes":[],"default_left":[true,true,true,true,false,true,false,false,false,false,false],"id":14,"left_children":[1,3,5,7,-1,9,-1,-1,-1,-1,-1],"loss_changes":[4.1602993E0,1.1918683E0,1.387749E0,3.6662507E-1,0E0,8.157569E-1,0E0,0E0,0E0,0E0,0E0],"parents":[2147483647,0,0,1,1,2,2,3,3,5,5],"right_children":[2,4,6,8,-1,10,-1,-1,-1,-1,-1],"split_conditions":[4.9884997E-2,3.4405E1,2.38E1,1.6564999E1,-1.5334278E-2,1.6365E1,-1.2619434E-1,1.4635606E-1,1.8116232E-2,9.836783E-2,-5.607841E-2],"split_indices":[7,13,21,20,0,20,0,0,0,0,0],"split_type":[0,0,0,0,0,0,0,0,0,0,0],"sum_hessian":[1.4018736E1,7.8166943E0,6.202041E0,5.902934E0,1.9137604E0,2.051709E0,4.150332E0,4.830571E0,1.0723629E0,1.0225551E0,1.029154E0],"tree_param":{"num_deleted":"0","num_feature":"30","num_nodes":"11","size_leaf_vector":"0"}},{"base_weights":[1.05049595E-1,6.120476E-1,-3.6746767E-1,7.894643E-1,-9.447172E-3,4.0063918E-1,-6.618606E-1,2.6813349E-2,-8.191432E-1],"categories":[],"categories_nodes":[],"categories_segments":[],"categories_sizes":[],"default_left":[true,true,true,false,false,false,true,false,false],"id":15,"left_children":[1,3,5,-1,-1,-1,7,-1,-1],"loss_changes":[3.5648553E0,7.9039717E-1,2.0382338E0,0E0,0E0,0E0,6.768E-1,0E0,0E0],"parents":[2147483647,0,0,1,1,2,2,6,6],"right_children":[2,4,6,-1,-1,-1,8,-1,-1],"split_conditions":[2.605E-1,4.022E1,7.2955E2,1.2631428E-1,-1.5115475E-3,6.410227E-2,4.4485003E-2,4.2901356E-3,-1.3106291E-1],"split_indices":[26,13,23,0,0,0,7,0,0],"split_type":[0,0,0,0,0,0,0,0,0],"sum_hessian":[1.2941699E1,6.100616E0,6.8410835E0,4.5355854E0,1.5650302E0,1.7955016E0,5.0455823E0,1.0923159E0,3.9532661E0],"tree_param":{"num_deleted":"0","num_feature":"30","num_nodes":"9","size_leaf_vector":"0"}},{"base_weights":[9.9611044E-2,3.7797374E-1,-6.6944766E-1,7.8025484E-1,1.7816968E-2,5.5032504E-1,-3.0487344E-1,1.779276E-2,-5.783673E-1,-3.0881983E-1,3.2918957E-1],"categories":[],"categories_nodes":[],"categories_segments":[],"categories_sizes":[],"default_left":[true,true,false,false,true,false,true,true,false,false,false],"id":16,"left_children":[1,3,-1,-1,5,-1,7,9,-1,-1,-1],"loss_changes":[3.040134E0,1.4636726E0,0E0,0E0,1.2682552E0,0E0,4.1898584E-1,4.1641864E-1,0E0,0E0,0E0],"parents":[2147483647,0,0,1,1,4,4,6,6,7,7],"right_children":[2,4,-1,-1,6,-1,8,10,-1,-1,-1],"split_conditions":[1.20350006E2,3.257E-2,-1.0041715E-1,1.1703823E-1,1.6560001E1,8.254876E-2,3.0994999E1,1.1415E0,-8.67551E-2,-4.6322975E-2,4.9378436E-2],"split_indices":[22,7,0,0,1,0,13,11,0,0,0],"split_type":[0,0,0,0,0,0,0,0,0,0,0],"sum_hessian":[1.2019134E1,9.198308E0,2.8208256E0,3.7940593E0,5.4042487E0,1.7729971E0,3.6312513E0,2.094783E0,1.5364683E0,1.0264516E0,1.0683316E0],"tree_param":{"num_deleted":"0","num_feature":"30","num_nodes":"11","size_leaf_vector":"0"}},{"base_weights":[9.2225194E-2,3.5002163E-1,-6.7963904E-1,6.3438976E-1,-1.388299E-1,8.0178994E-1,4.911788E-2,2.8896454E-1,-5.682967E-1],"categories":[],"categories_nodes":[],"categories_segments":[],"categories_sizes":[],"default_left":[true,true,false,true,true,false,false,false,false],"id":17,"left_children":[1,3,-1,5,7,-1,-1,-1,-1],"loss_changes":[2.676707E0,1.4570519E0,0E0,5.8820486E-1,9.803525E-1,0E0,0E0,0E0,0E0],"parents":[2147483647,0,0,1,1,3,3,4,4],"right_children":[2,4,-1,6,8,-1,-1,-1,-1],"split_conditions":[1.6029999E-1,8.111E2,-9.5149465E-2,3.3004997E1,1.9544998E1,1.1225059E-1,6.8765036E-3,4.0455036E-2,-7.956153E-2],"split_indices":[27,23,0,13,1,0,0,0,0],"split_type":[0,0,0,0,0,0,0,0,0],"sum_hessian":[1.1256367E1,8.847798E0,2.4085689E0,5.4056067E0,3.4421911E0,3.9156911E0,1.4899155E0,1.8883498E0,1.5538415E0],"tree_param":{"num_deleted":"0","num_feature":"30","num_nodes":"9","size_leaf_vector":"0"}},{"base_weights":[8.338354E-2,5.456636E-1,-3.404561E-1,7.244146E-1,3.5266848E-3,3.3412468E-1,-6.080389E-1,7.6086135E-3,-7.628926E-1],"categories":[],"categories_nodes":[],"categories_segments":[],"categories_sizes":[],"default_left":[true,true,true,false,false,false,true,false,false],"id":18,"left_children":[1,3,5,-1,-1,-1,7,-1,-1],"loss_changes":[2.457525E0,5.7210624E-1,1.4061542E0,0E0,0E0,0E0,4.945314E-1,0E0,0E0],"parents":[2147483647,0,0,1,1,2,2,6,6],"right_children":[2,4,6,-1,-1,-1,8,-1,-1],"split_conditions":[2.605E-1,4.022E1,7.2955E2,9.417389E-2,4.58469E-4,4.3436207E-2,4.4485003E-2,9.891198E-4,-9.9176034E-2],"split_indices":[26,13,23,0,0,0,7,0,0],"split_type":[0,0,0,0,0,0,0,0,0],"sum_hessian":[1.059455E1,4.9299955E0,5.664554E0,3.454705E0,1.4752905E0,1.5381567E0,4.1263976E0,1.0204178E0,3.1059797E0],"tree_param":{"num_deleted":"0","num_feature":"30","num_nodes":"9","size_leaf_vector":"0"}},{"base_weights":[7.977982E-2,5.1559913E-1,-3.194213E-1,6.950846E-1,3.2536665E-3,2.832775E-1,-5.957798E-1,-1.0557645E-1,-7.269346E-1],"categories":[],"categories_nodes":[],"categories_segments":[],"categories_sizes":[],"default_left":[true,true,true,false,false,false,true,false,false],"id":19,"left_children":[1,3,5,-1,-1,-1,7,-1,-1],"loss_changes":[2.0880811E0,5.189369E-1,1.2326784E0,0E0,0E0,0E0,2.2553349E-1,0E0,0E0],"parents":[2147483647,0,0,1,1,2,2,6,6],"right_children":[2,4,6,-1,-1,-1,8,-1,-1],"split_conditions":[2.605E-1,4.022E1,2.333E1,8.3410144E-2,3.9043996E-4,3.39933E-2,1.3065E-1,-1.2669173E-2,-8.723215E-2],"split_indices":[26,13,13,0,0,0,24,0,0],"split_type":[0,0,0,0,0,0,0,0,0],"sum_hessian":[1.0055252E1,4.6677537E0,5.387498E0,3.1926348E0,1.475119E0,1.6858534E0,3.7016447E0,1.1623249E0,2.5393198E0],"tree_param":{"num_deleted":"0","num_feature":"30","num_nodes":"9","size_leaf_vector":"0"}},{"base_weights":[7.4753456E-2,3.052309E-1,-6.2115765E-1,5.813025E-1,-1.3577619E-1,7.554852E-1,3.6413737E-2,2.6850164E-1,-5.3534377E-1],"categories":[],"categories_nodes":[],"categories_segments":[],"categories_sizes":[],"default_left":[true,true,false,true,true,false,false,false,false],"id":20,"left_children":[1,3,-1,5,7,-1,-1,-1,-1],"loss_changes":[1.8974856E0,1.1344421E0,0E0,4.9650514E-1,8.1385636E-1,0E0,0E0,0E0,0E0],"parents":[2147483647,0,0,1,1,3,3,4,4],"right_children":[2,4,-1,6,8,-1,-1,-1,-1],"split_conditions":[1.6029999E-1,8.111E2,-6.832734E-2,3.3004997E1,1.9544998E1,8.3103366E-2,4.005511E-3,2.953518E-2,-5.8887813E-2],"split_indices":[27,23,0,13,1,0,0,0,0],"split_type":[0,0,0,0,0,0,0,0,0],"sum_hessian":[9.648232E0,7.66956E0,1.9786726E0,4.5211697E0,3.1483898E0,3.1331217E0,1.3880482E0,1.7280195E0,1.4203705E0],"tree_param":{"num_deleted":"0","num_feature":"30","num_nodes":"9","size_leaf_vector":"0"}}]},"name":"gbtree"},"learner_model_param":{"base_score":"5E-1","num_class":"0","num_feature":"30"},"objective":{"name":"binary:logistic","reg_loss_param":{"scale_pos_weight":"1"}}},"version":[1,5,0]}