{"learner":{"attributes":{"best_iteration":"9","best_score":"0.9979729729729729"},"feature_names":["mean_radius","mean_texture","mean_perimeter","mean_area","mean_smoothness","mean_compactness","mean_concavity","mean_concave_points","mean_symmetry","mean_fractal_dimension","radius_error","texture_error","perimeter_error","area_error","smoothness_error","compactness_error","concavity_error","concave_points_error","symmetry_error","fractal_dimension_error","worst_radius","worst_texture","worst_perimeter","worst_area","worst_smoothness","worst_compactness","worst_concavity","worst_concave_points","worst_symmetry","worst_fractal_dimension"],"feature_types":["float","float","float","float","float","float","float","float","float","float","float","float","float","float","float","float","float","float","float","float","float","float","float","float","float","float","float","float","float","float"],"gradient_booster":{"model":{"gbtree_model_param":{"num_parallel_tree":"1","num_trees":"11","size_leaf_vector":"0"},"tree_info":[0,0,0,0,0,0,0,0,0,0,0],"trees":[{"base_weights":[4.695652E-1,1.8585858E0,-1.3642384E0,1.9162303E0,1.8181819E-1,9.0909094E-1,-1.6992481E0,1.9358289E0,5E-1,1.5294118E0,-6.666667E-1,-2E-1,-1.8974359E0,1.9562842E0,5E-1,-1.1428572E0,1.2E0,-5E-1,-1.9292035E0],"categories":[],"categories_nodes":[],"categories_segments":[],"categories_sizes":[],"default_left":[1,1,1,1,0,1,1,1,0,0,0,1,1,0,0,0,0,0,0],"id":0,"left_children":[1,3,5,7,-1,9,11,13,-1,-1,-1,15,17,-1,-1,-1,-1,-1,-1],"loss_changes":[2.2223077E2,4.436096E0,3.02947E1,3.5743713E-1,0E0,6.395722E0,9.500168E0,3.9491272E-1,0E0,0E0,0E0,7.971429E0,3.3390045E-1,0E0,0E0,0E0,0E0,0E0,0E0],"parents":[2147483647,0,0,1,1,2,2,3,3,5,5,6,6,7,7,11,11,12,12],"right_children":[2,4,6,8,-1,10,12,14,-1,-1,-1,16,18,-1,-1,-1,-1,-1,-1],"split_conditions":[1.0515E2,4.087E-1,2.1675E1,1.455E1,9.09091E-3,1.364E-1,5.012E-2,6.2555003E-1,2.5E-2,7.647059E-2,-3.3333335E-2,1.7175E-2,8.366E-2,9.781421E-2,2.5E-2,-5.714286E-2,6.0000002E-2,-2.5E-2,-9.646018E-2],"split_indices":[22,25,21,0,0,24,7,10,0,0,0,15,4,0,0,0,0,0,0],"split_type":[0,0,0,0,0,0,0,0,0,0,0,0,0,0,0,0,0,0,0],"sum_hessian":[8.525E1,4.85E1,3.675E1,4.675E1,1.75E0,4.5E0,3.225E1,4.575E1,1E0,3.25E0,1.25E0,4E0,2.825E1,4.475E1,1E0,2.5E0,1.5E0,1E0,2.725E1],"tree_param":{"num_deleted":"0","num_feature":"30","num_nodes":"19","size_leaf_vector":"0"}},{"base_weights":[4.4797975E-1,1.7727367E0,-1.3005549E0,1.8282146E0,1.6656834E-1,8.723086E-1,-1.621173E0,1.4726074E0,-6.482499E-1,-1.8955955E-1,-1.8107138E0,-1.1026947E0,1.1646392E0],"categories":[],"categories_nodes":[],"categories_segments":[],"categories_sizes":[],"default_left":[1,1,1,0,0,1,1,0,0,1,0,0,0],"id":1,"left_children":[1,3,5,-1,-1,7,9,-1,-1,11,-1,-1,-1],"loss_changes":[2.0167865E2,4.09671E0,2.7662952E1,0E0,0E0,5.9703097E0,8.660988E0,0E0,0E0,7.4628835E0,0E0,0E0,0E0],"parents":[2147483647,0,0,1,1,2,2,5,5,6,6,9,9],"right_children":[2,4,6,-1,-1,8,10,-1,-1,12,-1,-1,-1],"split_conditions":[1.0515E2,1.4559999E-1,2.1675E1,5.484644E-1,4.9970504E-2,1.364E-1,5.012E-2,4.4178224E-1,-1.9447498E-1,1.7175E-2,-5.4321414E-1,-3.3080843E-1,3.493918E-1],"split_indices":[22,27,21,0,0,24,7,0,0,15,0,0,0],"split_type":[0,0,0,0,0,0,0,0,0,0,0,0,0],"sum_hessian":[8.507086E1,4.8392784E1,3.6678074E1,4.6643448E1,1.749338E0,4.4949064E0,3.2183167E1,3.2452533E0,1.2496529E0,3.996611E0,2.8186556E1,2.49796E0,1.4986508E0],"tree_param":{"num_deleted":"0","num_feature":"30","num_nodes":"13","size_leaf_vector":"0"}},{"base_weights":[3.524206E-1,1.2532037E0,-1.2850235E0,1.3763553E0,-1.1183226E0,4.5000458E-1,-1.4592466E0,1.4767628E0,4.7623494E-1,-1.7484647E-1,8.69708E-1,1.4983164E0,3.5886452E-1,1.1118841E0,-1.0633241E0,1.3928412E-1,1.3696815E0],"categories":[],"categories_nodes":[],"categories_segments":[],"categories_sizes":[],"default_left":[1,1,1,1,0,1,0,1,1,0,0,0,0,1,0,0,0],"id":2,"left_children":[1,3,5,7,-1,9,-1,11,13,-1,-1,-1,-1,15,-1,-1,-1],"loss_changes":[1.17647705E2,1.6509346E1,9.24535E0,3.741127E0,0E0,1.0324535E0,0E0,5.1680756E-1,7.4561815E0,0E0,0E0,0E0,0E0,1.0695019E0,0E0,0E0,0E0],"parents":[2147483647,0,0,1,1,2,2,3,3,5,5,7,7,8,8,13,13],"right_children":[2,4,6,8,-1,10,-1,12,14,-1,-1,-1,-1,16,-1,-1,-1],"split_conditions":[1.6805E1,1.7175001E-1,2.316E-1,1.349E-1,-3.4668002E-1,9.213E-2,-4.5236647E-1,5.497E-1,1.971E1,-5.4202408E-2,2.6960948E-1,4.6447808E-1,1.11248E-1,1.4105E-1,-3.2963046E-1,4.3178078E-2,4.2460126E-1],"split_indices":[20,27,26,27,0,4,0,10,1,0,0,0,0,27,0,0,0],"split_type":[0,0,0,0,0,0,0,0,0,0,0,0,0,0,0,0,0],"sum_hessian":[7.767033E1,5.0257538E1,2.7412786E1,4.8175457E1,2.0820832E0,2.3570304E0,2.5055756E1,4.27645E1,5.4109573E0,1.1814709E0,1.1755595E0,4.162171E1,1.1427882E0,4.026356E0,1.3846011E0,1.1663433E0,2.860013E0],"tree_param":{"num_deleted":"0","num_feature":"30","num_nodes":"17","size_leaf_vector":"0"}},{"base_weights":[2.990351E-1,1.0580549E0,-1.1099803E0,1.2548301E0,-6.8214856E-2,2.2758727E-1,-1.2313294E0,1.2915689E0,1.2886655E-1,6.247366E-1,-1.0618236E0,-7.896215E-2,-1.2842616E0,9.2241997E-1,-3.5842873E-2],"categories":[],"categories_nodes":[],"categories_segments":[],"categories_sizes":[],"default_left":[1,1,1,1,1,0,1,0,0,1,0,0,0,0,0],"id":3,"left_children":[1,3,5,7,9,-1,11,-1,-1,13,-1,-1,-1,-1,-1],"loss_changes":[7.265253E1,9.82552E0,4.157345E0,1.383297E0,5.81684E0,0E0,1.2439384E0,0E0,0E0,1.0239776E0,0E0,0E0,0E0,0E0,0E0],"parents":[2147483647,0,0,1,1,2,2,3,3,4,4,6,6,9,9],"right_children":[2,4,6,8,10,-1,12,-1,-1,14,-1,-1,-1,-1,-1],"split_conditions":[1.13149994E2,1.358E-1,2.363E-1,4.2190002E1,1.971E1,7.282793E-2,8.3855005E2,4.1330203E-1,4.1237295E-2,1.401E-1,-3.3978355E-1,-2.5267886E-2,-4.1096368E-1,2.951744E-1,-1.1469719E-2],"split_indices":[22,27,26,13,1,0,23,0,0,24,0,0,0,0,0],"split_type":[0,0,0,0,0,0,0,0,0,0,0,0,0,0,0],"sum_hessian":[6.5835045E1,4.2948357E1,2.2886684E1,3.646352E1,6.484838E0,1.830839E0,2.1055845E1,3.516892E1,1.294599E0,4.0391464E0,2.4456913E0,1.0341197E0,2.0021725E1,2.511145E0,1.5280015E0],"tree_param":{"num_deleted":"0","num_feature":"30","num_nodes":"15","size_leaf_vector":"0"}},{"base_weights":[2.594843E-1,8.822119E-1,-1.074045E0,9.858637E-1,-8.927294E-1,2.151766E-1,-1.1713939E0,1.1331085E0,1.1242378E-1,1.1963128E0,4.090103E-1,9.3371713E-1,-4.673141E-1,-3.7818488E-1,8.821242E-1,3.4630853E-1,-8.2561547E-1],"categories":[],"categories_nodes":[],"categories_segments":[],"categories_sizes":[],"default_left":[1,1,1,1,0,0,0,1,1,0,1,0,1,0,0,0,0],"id":4,"left_children":[1,3,5,7,-1,-1,-1,9,11,-1,13,-1,15,-1,-1,-1,-1],"loss_changes":[4.6562412E1,7.8699093E0,2.5031624E0,4.550396E0,0E0,0E0,0E0,9.301224E-1,3.4632227E0,0E0,1.8268256E0,0E0,1.5665975E0,0E0,0E0,0E0,0E0],"parents":[2147483647,0,0,1,1,2,2,3,3,7,7,8,8,10,10,12,12],"right_children":[2,4,6,8,-1,-1,-1,10,12,-1,14,-1,16,-1,-1,-1,-1],"split_conditions":[1.1605E2,1.712E-1,9.548999E-2,1.6224998E1,-2.9460073E-1,7.100828E-2,-3.8656E-1,3.3004997E1,2.0645E1,3.9478323E-1,2.2E-2,3.0812666E-1,9.0245E-2,-1.2480102E-1,2.9110098E-1,1.1428182E-1,-2.7245313E-1],"split_indices":[22,27,27,20,0,0,0,13,21,0,18,0,4,0,0,0,0],"split_type":[0,0,0,0,0,0,0,0,0,0,0,0,0,0,0,0,0],"sum_hessian":[5.3929527E1,3.6993053E1,1.6936472E1,3.537199E1,1.6210624E0,1.1041062E0,1.5832366E1,3.0014793E1,5.357198E0,2.7005428E1,3.0093644E0,1.9641186E0,3.3930795E0,1.2050227E0,1.8043417E0,1.0476259E0,2.3454537E0],"tree_param":{"num_deleted":"0","num_feature":"30","num_nodes":"17","size_leaf_vector":"0"}},{"base_weights":[2.3235075E-1,8.360554E-1,-8.836194E-1,9.53045E-1,-8.068774E-1,4.206721E-1,-1.0238107E0,1.0736722E0,2.9174912E-1,-9.956899E-2,-1.0942936E0,2.0654967E-1,1.1106777E0,6.8476975E-1,-7.245695E-1,9.4985247E-1,-7.152155E-2],"categories":[],"categories_nodes":[],"categories_segments":[],"categories_sizes":[],"default_left":[1,1,1,1,0,0,1,1,1,0,0,0,0,1,0,0,0],"id":5,"left_children":[1,3,5,7,-1,-1,9,11,13,-1,-1,-1,-1,15,-1,-1,-1],"loss_changes":[3.0394743E1,6.3582115E0,3.3451757E0,1.8887959E0,0E0,0E0,8.475714E-1,5.077572E-1,2.7456572E0,0E0,0E0,0E0,0E0,9.8519325E-1,0E0,0E0,0E0],"parents":[2147483647,0,0,1,1,2,2,3,3,6,6,7,7,8,8,13,13],"right_children":[2,4,6,8,-1,-1,10,12,14,-1,-1,-1,-1,16,-1,-1,-1],"split_conditions":[8.7485E2,1.7175001E-1,1.991E1,1.3235E-1,-2.743383E-1,1.4302851E-1,6.492E-2,1.9825E-1,2.1125E1,-3.3853456E-2,-3.7205982E-1,7.022689E-2,3.7763044E-1,8.09E2,-2.4635363E-1,3.2294986E-1,-2.4317328E-2],"split_indices":[23,27,21,27,0,0,29,28,1,0,0,0,0,23,0,0,0],"split_type":[0,0,0,0,0,0,0,0,0,0,0,0,0,0,0,0,0],"sum_hessian":[4.301851E1,2.8079313E1,1.4939196E1,2.660476E1,1.474554E0,1.2557188E0,1.3683477E1,2.1973059E1,4.6317015E0,1.1405203E0,1.2542957E1,1.1687274E0,2.080433E1,3.575316E0,1.0563853E0,2.4578843E0,1.1174318E0],"tree_param":{"num_deleted":"0","num_feature":"30","num_nodes":"17","size_leaf_vector":"0"}},{"base_weights":[2.0518477E-1,8.6242753E-1,-7.0751226E-1,9.9163455E-1,2.5949175E-3,1.6027059E-1,-9.7526187E-1,1.055592E0,9.6353576E-2,7.135452E-1,-5.7130826E-1,7.681866E-1,-4.7877148E-1,-2.1109173E-1,-1.0333478E0],"categories":[],"categories_nodes":[],"categories_segments":[],"categories_sizes":[],"default_left":[1,1,1,1,1,1,1,0,0,0,0,0,0,0,0],"id":6,"left_children":[1,3,5,7,9,11,13,-1,-1,-1,-1,-1,-1,-1,-1],"loss_changes":[2.1582127E1,2.3055258E0,3.684649E0,9.323387E-1,1.9241416E0,2.092458E0,3.032484E-1,0E0,0E0,0E0,0E0,0E0,0E0,0E0,0E0],"parents":[2147483647,0,0,1,1,2,2,3,3,4,4,5,5,6,6],"right_children":[2,4,6,8,10,12,14,-1,-1,-1,-1,-1,-1,-1,-1],"split_conditions":[4.9884997E-2,3.4405E1,2.38E1,1.12649994E2,1.08899996E-1,1.6365E1,1.551E1,3.694572E-1,3.372375E-2,2.4974082E-1,-1.9995789E-1,2.6886532E-1,-1.6757001E-1,-7.38821E-2,-3.6167175E-1],"split_indices":[7,13,21,22,24,20,20,0,0,0,0,0,0,0,0],"split_type":[0,0,0,0,0,0,0,0,0,0,0,0,0,0,0],"sum_hessian":[3.3961197E1,1.9775633E1,1.4185564E1,1.7058905E1,2.716729E0,3.4394948E0,1.074607E1,1.5754376E1,1.3045284E0,1.1047931E0,1.6119357E0,1.6591074E0,1.7803875E0,1.0864911E0,9.659578E0],"tree_param":{"num_deleted":"0","num_feature":"30","num_nodes":"15","size_leaf_vector":"0"}},{"base_weights":[1.8485534E-1,6.83862E-1,-7.8711885E-1,8.6838156E-1,-1.1045923E-1,4.3689195E-2,-9.095304E-1,9.791348E-1,2.3500681E-1,6.1381304E-1,-5.5293685E-1,-2.900656E-1,6.0868466E-1,-2.5856797E-2,-8.0721694E-1],"categories":[],"categories_nodes":[],"categories_segments":[],"categories_sizes":[],"default_left":[1,1,1,1,1,0,0,0,1,0,1,0,0,0,0],"id":7,"left_children":[1,3,5,7,9,-1,-1,-1,11,-1,13,-1,-1,-1,-1],"loss_changes":[1.4076599E1,2.8776236E0,1.0500169E0,8.581848E-1,1.7702667E0,0E0,0E0,0E0,8.8778776E-1,0E0,4.2110336E-1,0E0,0E0,0E0,0E0],"parents":[2147483647,0,0,1,1,2,2,3,3,4,4,8,8,10,10],"right_children":[2,4,6,8,10,-1,-1,-1,12,-1,14,-1,-1,-1,-1],"split_conditions":[1.4559999E-1,3.529E1,7.2415E2,1.2235E-1,1.0475E-1,1.572811E-2,-3.2743096E-1,3.5248855E-1,1.77E-1,2.209727E-1,1.1125E0,-1.0442361E-1,2.191265E-1,-9.308447E-3,-2.9059812E-1],"split_indices":[27,13,23,27,24,0,0,0,8,0,11,0,0,0,0],"split_type":[0,0,0,0,0,0,0,0,0,0,0,0,0,0,0],"sum_hessian":[2.691282E1,1.7978943E1,8.933878E0,1.4514101E1,3.4648414E0,1.2298657E0,7.7040124E0,1.1889225E1,2.6248758E0,1.1671562E0,2.2976851E0,1.1843892E0,1.4404864E0,1.1062663E0,1.1914188E0],"tree_param":{"num_deleted":"0","num_feature":"30","num_nodes":"15","size_leaf_vector":"0"}},{"base_weights":[1.611046E-1,7.2143084E-1,-5.722136E-1,8.7761486E-1,-6.97415E-2,4.4310352E-1,-7.7852076E-1,9.619095E-1,1.3031231E-1,3.4250498E-1,-4.4908938E-1,1.4108768E-2,-9.5532435E-1],"categories":[],"categories_nodes":[],"categories_segments":[],"categories_sizes":[],"default_left":[1,1,1,1,1,0,1,0,0,0,0,0,0],"id":8,"left_children":[1,3,5,7,9,-1,11,-1,-1,-1,-1,-1,-1],"loss_changes":[9.711417E0,1.7010117E0,2.5149572E0,5.7742214E-1,6.408264E-1,0E0,1.2709203E0,0E0,0E0,0E0,0E0,0E0,0E0],"parents":[2147483647,0,0,1,1,2,2,3,3,4,4,6,6],"right_children":[2,4,6,8,10,-1,12,-1,-1,-1,-1,-1,-1],"split_conditions":[4.9884997E-2,1.683E1,2.0695E1,3.4405E1,7.3005006E-2,1.6394831E-1,1.5780001E1,3.5590652E-1,4.8215553E-2,1.2672685E-1,-1.6616307E-1,5.220244E-3,-3.5347003E-1],"split_indices":[7,20,21,13,29,0,20,0,0,0,0,0,0],"split_type":[0,0,0,0,0,0,0,0,0,0,0,0,0],"sum_hessian":[2.1629992E1,1.2270414E1,9.359576E0,1.0156231E1,2.1141837E0,1.3868026E0,7.972774E0,8.868682E0,1.287549E0,1.0597019E0,1.0544819E0,1.6218854E0,6.3508887E0],"tree_param":{"num_deleted":"0","num_feature":"30","num_nodes":"13","size_leaf_vector":"0"}},{"base_weights":[1.434116E-1,5.320171E-1,-7.1935195E-1,8.241069E-1,6.5149106E-2,-3.9832644E-2,-8.4471387E-1,1.3041101E-1,9.064209E-1,5.1954126E-1,-5.254779E-1,7.9032093E-1,-1.4095923E-1,-6.553531E-1,-1.2395585E-1],"categories":[],"categories_nodes":[],"categories_segments":[],"categories_sizes":[],"default_left":[1,1,1,1,1,0,0,0,0,1,1,0,0,0,0],"id":9,"left_children":[1,3,5,7,9,-1,-1,-1,-1,11,13,-1,-1,-1,-1],"loss_changes":[6.526125E0,1.7474668E0,4.8729992E-1,3.4082985E-1,1.9286395E0,0E0,0E0,0E0,0E0,8.2492447E-1,8.457297E-2,0E0,0E0,0E0,0E0],"parents":[2147483647,0,0,1,1,2,2,3,3,4,4,9,9,10,10],"right_children":[2,4,6,8,10,-1,-1,-1,-1,12,14,-1,-1,-1,-1],"split_conditions":[1.5075E-1,7.5365E2,2.393E1,2.1935001E-1,1.9544998E1,-1.5136405E-2,-3.2099128E-1,4.9556185E-2,3.4443992E-1,2.6915002E-1,5.8920003E-2,3.0032194E-1,-5.3564508E-2,-2.4903418E-1,-4.7103222E-2],"split_indices":[27,23,21,28,1,0,0,0,0,26,9,0,0,0,0],"split_type":[0,0,0,0,0,0,0,0,0,0,0,0,0,0,0],"sum_hessian":[1.7323538E1,1.2208119E1,5.115418E0,7.0390496E0,5.1690702E0,1.0019783E0,4.1134396E0,1.0207827E0,6.0182667E0,2.9894936E0,2.1795764E0,1.9808664E0,1.0086272E0,1.1692137E0,1.0103629E0],"tree_param":{"num_deleted":"0","num_feature":"30","num_nodes":"15","size_leaf_vector":"0"}},{"base_weights":[1.1945121E-1,4.643459E-1,-7.0706904E-1,7.4642396E-1,-2.9807792E-3,-2.0736508E-1,-7.859674E-1,8.741216E-1,6.8907775E-2,4.3930206E-1,-3.818722E-1,2.8690372E-2,-5.686122E-1],"categories":[],"categories_nodes":[],"categories_segments":[],"categories_sizes":[],"default_left":[1,1,1,1,1,0,0,0,0,0,1,0,0],"id":10,"left_children":[1,3,5,7,9,-1,-1,-1,-1,-1,11,-1,-1],"loss_changes":[4.6403594E0,1.4887311E0,2.8235912E-2,5.4850245E-1,1.0459543E0,0E0,0E0,0E0,0E0,0E0,2.7372962E-1,0E0,0E0],"parents":[2147483647,0,0,1,1,2,2,3,3,4,4,10,10],"right_children":[2,4,6,8,10,-1,-1,-1,-1,-1,12,-1,-1],"split_conditions":[1.1745E2,2.624E-1,4.602E-3,1.4315E-2,2.567E1,-8.087238E-2,-3.065273E-1,3.4090742E-1,2.6874032E-2,1.713278E-1,2.3724998E1,1.1189245E-2,-2.2175875E-1],"split_indices":[22,26,14,17,21,0,0,0,0,0,13,0,0],"split_type":[0,0,0,0,0,0,0,0,0,0,0,0,0],"sum_hessian":[1.4126633E1,1.0276566E1,3.850067E0,6.0360117E0,4.240554E0,1.019746E0,2.8303208E0,4.8346043E0,1.2014076E0,1.8830339E0,2.3575199E0,1.0016581E0,1.3558619E0],"tree_param":{"num_deleted":"0","num_feature":"30","num_nodes":"13","size_leaf_vector":"0"}}]},"name":"gbtree"},"learner_model_param":{"base_score":"5E-1","num_class":"0","num_feature":"30","num_target":"1"},"objective":{"name":"binary:logistic","reg_loss_param":{"scale_pos_weight":"1"}}},"version":[1,6,1]}